40
15
1.59516 1.48419 -4.64668 19.0647 18.8877 1.60601 17.7538 6.00444 -3.75059 -1.41143 4.6195 2.27272 -0.21959 0.277826 3.36639 
15
-0.295729 0.0335605 -4.63265 10.1065 10.1953 -0.789742 9.94402 3.43677 -3.87996 -0.868388 0.0919371 0.829734 -1.31746 -0.143582 1.35039 
15
-0.927308 -0.540607 -3.39157 5.11565 5.11118 -2.28616 5.41245 0.155193 -2.81686 -0.750996 -2.43963 0.232379 -1.20746 0.872555 2.23011 
15
-0.315026 -0.165441 -2.45379 4.10122 4.30487 -2.80988 4.64679 0.472645 -1.90217 0.670007 -1.85091 0.993894 -1.20816 0.659417 0.938111 
15
-1.0284 0.143788 -1.03724 3.85361 3.38311 -1.0832 3.35171 -0.280674 -0.780919 0.589047 -0.972054 0.984215 -1.06258 -0.281065 1.4246 
15
-0.328589 1.50428 -0.126991 4.08904 3.72113 -0.607405 3.08443 0.0468507 0.0221722 1.16395 -0.417425 0.14346 -0.546358 -0.54897 1.71207 
15
-1.18406 1.4199 0.645322 3.39019 3.52826 0.00789078 3.28594 0.266298 0.464422 1.0222 1.71098 -0.372707 -0.140505 1.42482 1.81116 
15
-0.810808 -0.0695631 0.987343 3.61586 3.64796 1.40385 3.13639 -0.296019 1.59158 1.50193 2.29267 -0.962407 -0.125482 0.640373 0.403968 
15
-0.822303 -0.0926551 1.1645 3.76771 3.57451 2.34521 2.66731 0.15853 0.961027 2.35946 4.05081 -1.49529 -0.670034 1.03927 -0.21828 
15
-1.07392 0.510112 0.465234 3.3838 3.51068 2.40345 3.35058 -0.240243 1.25948 1.21147 1.30871 0.00680745 -0.42942 -0.0105664 -0.331097 
15
-0.408831 1.81002 1.06672 3.01344 2.91972 3.34989 2.59297 -0.395364 2.14609 1.82985 2.38863 -0.477975 0.147954 0.877458 -1.15726 
15
-0.494626 2.85621 0.668681 3.40755 2.98621 1.40034 3.08866 -0.450163 1.9618 0.747759 2.21632 -1.19134 -0.144609 0.437441 -0.154079 
15
-0.567385 1.29615 0.510482 3.35363 2.52624 3.24043 3.12521 -0.12871 1.09896 -0.0452446 1.60302 -1.64471 0.657228 -0.188358 -1.76674 
15
0.369559 -1.73848 -0.40693 3.33546 2.77978 2.9522 2.96129 -0.203377 0.924684 0.67823 2.25131 -1.75646 0.0153683 0.532476 -3.01616 
15
0.224777 -1.46367 1.03175 3.3206 2.66448 2.35626 2.95866 -0.6664 2.10539 0.639545 1.13417 -0.617884 1.03819 2.14889 -1.32723 
15
0.382964 -1.54164 0.308064 3.32669 2.67566 3.08507 2.74873 -0.112294 1.32331 1.27235 1.02856 -0.929066 1.21058 1.32903 -2.27227 
15
0.757571 -2.18228 0.435437 2.98931 2.95486 4.35688 2.95767 0.154504 0.468127 -0.976966 3.29805 -3.03058 0.874278 1.33911 1.32497 
15
1.08949 -2.63197 0.496047 3.74217 3.18784 2.59074 3.09568 -0.844064 0.638657 -0.408792 2.31071 -0.78417 1.36931 3.97771 -0.180548 
15
1.49804 -2.10097 3.24636 5.57393 4.76306 0.505771 4.17406 -0.61859 1.68426 0.0665878 3.16007 2.90707 2.29007 2.96946 1.18864 
15
2.54234 -0.310072 3.26313 12.2544 10.4317 1.3866 9.56195 0.0485113 1.45598 0.331284 5.08517 3.27703 1.91684 0.465189 0.438701 
15
2.83973 -1.22333 5.37199 16.6223 15.7897 0.734204 14.5912 -1.36496 4.15126 0.561195 8.57084 5.21702 1.92359 0.401716 -0.804477 
15
2.45733 -0.310229 5.13691 5.74219 5.52106 -0.731024 4.96375 -1.73659 3.22086 1.08923 0.915819 4.56835 1.01861 -1.64174 -3.92862 
15
2.76621 0.183611 1.51316 2.86295 2.27574 -0.175 2.49598 -1.59957 0.818468 1.66603 -1.50444 2.61167 0.482729 0.417181 -3.10091 
15
2.28547 0.98565 -0.222967 2.60636 2.61771 -1.29319 2.46508 -0.589276 -0.201103 -0.336529 -1.45201 3.39711 0.452972 0.998866 -0.512655 
15
1.48027 2.44123 0.906815 2.40667 2.68686 -0.344689 2.45584 -0.355642 1.40709 -1.06658 0.451228 1.89336 0.643054 0.297295 -0.0567404 
15
0.325981 4.34361 2.68519 3.09128 3.12556 -0.503146 2.94189 -0.369687 3.28452 -0.878757 0.617858 0.676415 -0.195006 -1.31328 -0.634785 
15
0.589675 6.00305 4.36448 3.56636 3.11503 -1.71913 2.337 0.545195 3.56284 2.23603 -1.41718 3.42622 -0.265579 -1.58784 -1.8809 
15
1.57905 5.50742 3.14075 3.1741 2.36634 -3.09936 2.14882 0.204923 3.07612 4.62888 -3.04648 5.27987 0.255589 0.213976 -1.97114 
15
1.04642 5.53243 2.6315 3.48794 2.87595 -3.46275 2.93859 -0.10544 2.74715 4.10738 -2.41717 4.91503 0.0862513 0.835003 -0.980093 
15
0.625205 -0.231557 3.81877 2.68417 2.55926 -3.52666 2.33658 -0.307165 3.32993 2.20132 0.444011 3.0808 0.608718 0.0819879 0.12018 
15
0.165644 -1.86647 2.41498 3.38551 2.73662 -3.33991 2.66631 0.779938 2.3915 0.629799 0.610663 1.35726 -0.250153 -0.588458 0.718007 
15
0.291795 -0.751361 1.7482 2.951 2.59663 -2.78397 2.7995 1.66855 2.3092 0.462542 -0.334439 0.666082 -0.0812388 -1.04614 1.72703 
15
-0.201736 0.308385 0.914177 3.57203 3.35614 -1.8975 2.72925 2.30516 1.83447 0.0446332 3.69388 -0.642716 0.301219 -1.55672 1.2018 
15
0.269936 0.266058 -0.0588742 3.819 3.18172 -0.385926 3.27251 1.25467 1.95746 -1.68647 3.41813 -1.63339 0.518645 -2.00694 1.26582 
15
0.0267139 1.05018 0.624868 3.55374 3.61973 1.07236 3.28924 2.112 1.09728 -1.14076 2.71926 -1.92792 -0.210755 -3.15314 -1.12564 
15
0.000659891 0.783171 0.494367 4.06001 4.23029 1.63588 4.58386 1.12356 1.29703 -2.5828 3.25223 -1.80895 0.177001 -1.26232 0.104897 
15
-0.213578 2.13838 0.147559 4.04871 4.43671 1.80942 3.99932 1.77652 1.77025 -3.85958 3.64678 -1.64282 0.30474 -0.614611 2.40257 
15
-0.29043 1.86241 0.724568 9.1506 8.18671 7.10375 8.6137 3.55083 0.823327 -3.03315 8.85477 -2.12347 0.939191 -2.54053 4.21788 
15
0.473623 2.3426 -0.566355 4.24726 3.42804 4.28616 4.13119 4.09798 0.674864 -3.78663 2.85038 -1.30934 0.801248 -3.4973 4.55958 
15
1.19764 4.80528 -0.232534 4.91647 4.67376 2.8351 3.78972 4.52577 1.01759 -3.33906 -2.04009 0.543515 1.40427 -3.84122 2.94163 
15
10
0.828324 -2.03223 -3.06292 -3.52304 1.84573 -1.23443 1.0393 -1.42656 1.23123 -2.38892 
10
0.704401 -2.37342 -5.25402 -2.15061 0.390212 -8.60382 7.30491 -3.65012 0.951398 -0.0785015 
10
-2.18405 -2.42833 -3.88172 -2.92545 -3.55872 -1.88439 -0.766949 -1.42784 -0.0566277 6.31747 
10
-5.04919 -7.81251 -4.10134 -5.0576 -8.12317 -6.82553 -6.83852 -8.72052 -0.706884 -2.0211 
10
-3.0738 -6.36218 -4.85918 -4.70219 -6.47491 -6.48095 -6.46356 -8.35845 -0.0406799 -4.85182 
10
-3.82534 4.70325 -8.28561 8.02049 -2.79182 2.76914 -2.62618 -6.06116 0.969965 -2.8413 
10
-2.84152 -6.75619 -3.97348 -4.14257 -6.37899 -6.59832 -6.07207 -8.00152 -0.138988 -5.41499 
10
0.611011 -2.06932 -1.27373 -3.00746 -2.97211 3.37459 -0.171371 -5.03067 1.5249 -2.32746 
10
-2.2785 -2.49837 -2.80471 -0.361212 -4.54272 -2.54422 1.48902 -1.0855 0.0248553 3.59373 
10
-5.22603 6.28725 3.37911 -4.71921 -1.83053 -4.21438 -3.14306 -7.05105 0.3546 -2.12536 
10
-10.1529 -2.2068 -6.41537 1.90241 -4.22811 6.26898 7.21744 3.55568 0.639448 -1.30332 
10
-2.50917 -4.41315 -8.61501 -3.17975 8.23183 -3.28931 -0.824765 -1.4654 -0.96078 -0.244162 
10
-0.16695 -2.03997 -1.91142 -2.31812 -1.50614 -0.965797 -1.67008 -0.504936 2.06308 1.9521 
10
-9.81725 -0.503912 3.45717 -2.11015 5.38323 -4.1822 -5.23787 8.35136 0.905118 -5.65141 
10
0.568881 5.22728 -10.5242 -13.0032 1.14911 2.69341 -3.20357 5.39035 1.03346 -12.5571 
